{"architecture":"5->16->8->2 ReLU-ReLU-Softmax","task":"Women's safety threat detection","features":["impact_norm","erratic_norm","hr_panic_norm","sos_active","duration_norm"],"classes":["safe","threat"],"accuracy":0.9975,"f1_score":0.9971,"fpr":0.0025,"recall":0.9975,"dataset":"Synthetic (14,000 samples: grab, assault, cornered, panic, walking, jogging)","team":"FLUEX","trained_with":"Pure Python backpropagation (no frameworks)","weights":{"W1":[[-0.0001371596019614112,-0.00016864953420880007,-0.00017517781571762538,0.00023309561746877,-0.00013634578912923937],[-0.0008607142281171889,0.0001904493744750897,-0.0001542860451449852,-0.00012470393175034841,6.247244142047562e-05],[1.3153147143680306,0.07901908987372838,0.5817704134343886,-0.10464905520272703,-0.27673691751846136],[-0.9684555999259616,0.09775886776172027,0.28280564894993915,0.15442585333393627,0.23194275779926873],[0.5826385327800705,-0.35046249889002695,-0.23772553927046033,-0.1125170891590922,-0.24729153874823018],[0.2815840086281069,0.7168279079391271,0.633851760038193,0.09355368553787445,-0.2827027543634115],[0.00032220421844205213,-0.0008770403076417607,-0.0015118569957200789,-0.00034882982558413224,-0.0006367793493418011],[0.31534437199271687,0.636778033085141,0.2640242411521132,0.08578488557132435,-0.2760676933738884],[-0.4619400049701098,0.09953511799255294,-0.2990787578745626,0.1274874448196609,0.36145118508814966],[-0.08944257158335336,-0.2659023315448177,-1.8355580344827471,-0.21405856149496552,-0.6585040586623218],[-0.014755926401210043,0.009108245926107435,0.007854970391244534,0.022919676343499812,-0.027456734443694217],[-2.8799789633148443,0.3232435462557071,0.8109480983371391,0.5013308918206613,0.8330092514232792],[0.8255489150226248,1.2057161261688596,0.011278872006975227,0.07691183888874849,0.029089523276526304],[-1.599735149158289,0.17884752540236115,0.4382763211298673,0.27672854090816407,0.4802139126024502],[0.5046507388254725,1.2690592330767598,1.2657916357496217,0.12170514215083432,-0.4518437730891544],[-1.1507291177076417,0.23710754417403526,-0.3752587697837216,0.4376496940076298,1.7971360316569518]],"b1":[-0.1859379492829228,-0.025099143079681016,-0.20698218720377,0.020539713250333113,0.26472854720727973,-0.4958401444080877,0.00022196129209744528,-0.2714794332582846,0.19107273470628833,0.945989972600777,0.0031126116532010093,0.034056206314249104,-0.48842383785006976,0.021114912357223643,-0.9883004470554411,-0.06522974148272696],"W2":[[-0.00022682820857931288,-9.439039951076564e-05,-0.1311193721366326,0.25125995607325197,-0.17406508691227418,0.3852594250257196,0.0003724913848048466,0.35120204996535287,0.2928672659662189,-0.7904160632882217,0.013292088595603027,0.8115325104081822,0.6792071445780583,0.4563268961329548,0.7038292896132909,1.012207705175755],[0.0003792182132759384,-9.60804903882224e-06,0.39080230612941347,-0.3648525111318539,0.21233611277816455,-0.40084182293850185,-0.00014346235532716414,-0.29913579937500767,-0.1720002500245463,0.9584546568603891,-0.011344051602820487,-1.0326846998374972,-0.6352602720029065,-0.5684497691519507,-0.7545613141309073,-0.47548852335832087],[-0.00019758704041720131,-7.980409166621938e-07,0.8591665984736537,-0.002678415815669556,0.0728975907479405,0.4920202354449879,-0.0001433552083268098,0.41576666410088076,-0.011315461157682142,0.005682899439436452,0.008601685536203002,-0.09386788534319628,0.8061499257465202,-0.07074263493954157,0.8812814554429869,-0.028127948354448797],[0.00043508913600699483,-0.00041868069500323763,0.5486399259401318,-0.35648883507150597,0.23701580234964315,-0.3340732101227279,0.0003449927185166871,-0.29212021713138264,-0.14559739192209967,1.100122363208201,-0.00928924908802664,-1.0146161235512159,-0.6308322202491551,-0.5580831620511706,-0.6106446896595948,-0.3708594761285431],[-0.00019004421878399114,0.00010279162685282355,-0.3737203288072765,0.260224079119021,-0.19594515671123675,0.2043212612713407,0.0004542053640750483,0.14161624051172797,0.2918112085696875,-0.7922647964497536,0.014137501428772762,0.8488108448742793,0.15461260770851928,0.4788380836946583,0.39527948390257217,1.0151328824739727],[0.0004074372562418876,0.000195766951727548,0.10066772257006469,0.01615727697587501,-0.008093753851552178,0.04693958330189024,3.5957600373439916e-05,0.041948275259476975,0.012896922492587165,0.001091855961101996,0.001323347338398432,0.04762960130497201,0.07967981367059908,0.025646303251546185,0.08491158081782839,0.06726166139732352],[0.00027989126366413875,0.00019521921660833042,-0.0003333950919182783,9.058168105178808e-05,-2.10912822698676e-05,-0.00047784384686850017,0.00014553983844877284,-1.0352843740623418e-05,-0.00023247987844507342,0.0001819171904277262,0.00015521392164009404,-0.00037988909244735365,0.000132755017786257,0.00024021696531965927,-0.000235920280049369,9.358153152071025e-05],[2.3978159834579494e-06,0.000728061127534988,-0.15513142858455642,0.09437443444196231,-0.07610698305816645,0.07130162351350511,0.0006067709967630181,0.047677567467710326,0.10849082891301168,-0.2971293205294934,0.005281802339516578,0.3079816589657021,0.048111514384920825,0.17406056231500386,0.138949273583013,0.374916651494746]],"b2":[0.13231716086276368,1.1485388559017617,-0.42433197518754046,0.8316840550146097,0.2642474673420491,-0.07022740318209689,-0.07883427677330658,0.10694853139273672],"W3":[[-1.3211105931747675,1.346699315510642,-1.0821171950702397,1.3601161734676137,-1.1745308982662326,-0.12231810666703273,0.0014237148139838423,-0.4340430232795852],[1.3194745862348554,-1.3460377208225296,1.0822560119485167,-1.359009131270703,1.1746596105599547,0.12233424863561607,-0.0007136200294633107,0.43345013425071205]],"b3":[1.2645262044354282,-1.264526204435396]}}